svm_type c_svc
kernel_type rbf
gamma 0.047619
nr_class 10
total_sv 91
rho -0.196949 -0.187291 -0.163316 -0.0117895 -0.0198998 -0.0839835 -0.323796 0.0309711 -0.135182 0.0627199 0.070421 0.189299 0.182408 0.118053 -0.125002 0.233332 0.130803 0.0331601 0.143962 0.22045 0.0853788 -0.179414 0.209596 0.121337 0.147562 0.239014 0.103479 -0.225622 0.288477 0.130226 -0.0132429 -0.070199 -0.306161 0.0410184 -0.0785436 -0.106396 -0.31402 0.0893428 -0.11437 -0.235518 0.1657 0.00858182 0.344498 0.254407 -0.141168
label 0 1 2 3 4 5 6 7 8 9
nr_sv 12 7 12 8 7 11 9 7 8 10
SV
0 0 0 0 0 0 0 0 0.1858158345099787 1:1 2:3 3:3 5:2 6:1 7:2 8:1 10:1 11:2 12:3 13:2 14:3 15:6 16:1 17:2 18:3 19:1 20:2 21:3 
0.2743742509179794 0.272218790518925 0.2689764128405248 0.3687383100298806 0.06338667301031489 0.1720649388003746 0.2675877297272904 0.4281680163665429 0.09665156493468255 1:1 2:3 3:2 5:2 6:1 7:2 9:2 10:1 11:3 12:1 13:2 14:2 15:7 16:1 17:2 18:2 20:2 21:4 
0.1758577724113822 0.2272315933441478 0.2010792538072568 0.2309437943663916 0.5701198991221864 0.6605124284423252 0.1286959082532597 0.2457141058161428 0.1482391468496679 1:2 2:3 3:1 4:1 5:1 6:2 7:2 8:1 9:1 10:2 11:2 12:1 13:2 14:3 15:7 17:3 18:2 19:1 20:1 21:4 
0.2756151469323798 0.4143920095224059 0.5240642366837401 0.3462501423849727 0.8451872627712983 0.9102123995629571 0.2711318467786757 0.6956079643991299 0.7127371113231426 1:2 2:3 3:1 4:2 5:1 6:2 7:1 8:2 9:2 10:1 11:3 12:3 13:1 14:3 15:5 16:4 17:2 18:2 19:2 20:1 21:5 
0.5046766351053864 0.8432479792337259 0.6779806844711132 0.5951141744600378 0.6734062280349352 0.6105030266086277 0.7362232801574115 0.6340335778093649 0.6258625058878284 1:2 2:2 3:1 4:1 5:1 6:2 7:1 8:1 9:2 12:2 13:1 14:3 15:3 17:3 18:1 19:2 21:4 
0.2635199678401121 0.1236853261138466 0.2094273059449108 0.3096611225841079 0.2706789631093662 0.09553061413917083 0.1819164434919941 0.2274308623932402 0.3269848581175169 1:1 2:3 3:2 4:1 5:1 6:2 7:1 8:1 9:2 10:1 11:2 12:4 13:1 14:3 15:5 16:3 17:1 18:1 19:3 21:6 
0.2566444154768869 0.2532414050705641 0.2508312931342394 0.303522300487731 0.2968853445636747 0.2504884174226964 0.1448946537968601 0.3557681738063713 0.3657388323268483 2:3 3:1 4:2 5:1 6:2 7:1 8:1 9:2 11:1 12:3 13:2 14:2 15:7 17:2 18:1 19:2 20:1 21:4 
0.02693125380752813 0 0 0.03958830765525297 0.05547759636740478 0 0 0 0 1:1 2:3 3:3 5:2 6:2 7:2 9:1 10:1 11:2 12:1 13:2 14:3 15:7 16:1 17:2 18:2 19:1 20:1 21:3 
0.3580517851218495 0.563329233587604 0.5178060469119026 0.3489277500438477 0.8713257693738119 0.8840351437286034 0.2904571156572625 0.7239801328472068 0.9261909925830072 1:1 2:3 3:3 5:2 6:1 7:2 8:1 10:1 11:2 12:3 13:2 14:3 15:6 16:1 17:2 18:3 19:1 20:2 21:3 
0 0 0 0 0.02626937897293395 0 0 0 0 1:2 2:3 3:1 4:2 5:1 6:2 7:1 8:1 9:2 10:1 11:2 12:3 13:2 14:3 15:5 16:2 17:3 18:2 19:2 21:6 
0 0.1667367294451755 0 0 0 0 0 0 0 1:1 2:3 3:1 4:2 5:1 6:1 7:1 8:1 9:2 11:1 12:3 13:2 14:3 15:5 16:1 17:3 18:2 19:1 21:4 
0.4947817310622075 0.6795231396449774 0.6899369059001653 0.6555289927072484 0.6310484459469554 0.7345933178116243 0.4992454025708574 0.5812468341472213 0.8552064051068782 2:3 3:2 4:2 6:3 7:1 9:1 10:1 11:2 12:2 13:1 14:2 15:3 16:2 18:3 19:1 20:2 21:5 
-0.4784393763184315 0.3495890958505985 0.3515365502931587 0.4710675686904274 0.4617390319383633 0.4340277699709605 0.3513474407012291 0.4563758819857448 0.4499751433567287 2:1 3:3 4:1 5:1 6:1 7:1 8:2 9:1 10:1 12:1 13:3 15:3 16:1 17:2 18:5 19:5 
-0.5823795319749577 0.828763143231218 0.5765898930774071 0.5968180153736356 0.5629895284085229 0.532928751182094 0.5779655226078466 0.5281105122391244 0.510707699295641 2:2 3:2 6:1 7:1 9:1 10:1 12:2 13:4 15:2 17:2 18:5 19:4 20:1 
-0.06779387785854327 0.02605288403100671 0.09473245253387946 0.1725411646779865 0.04833385004166725 0.100695860616678 0.02907290549874338 0.1014345843354869 0.1906030942459338 2:1 3:3 4:1 6:2 7:1 8:2 9:1 10:2 11:1 12:3 13:2 15:2 16:2 17:1 18:6 19:6 20:1 21:1 
-0.4866222066140311 0.4412833301613126 0.4521880700127864 0.4694226528347235 0.5203536352548022 0.4411843269672283 0.412848436761708 0.5264465928963199 0.485757970551071 1:1 2:3 3:2 5:1 6:1 8:2 9:1 10:2 11:1 12:4 13:2 15:2 16:2 17:1 18:7 19:6 20:1 21:1 
-0.6441619876977455 0.558177781783342 0.5421918969064645 0.6168216994953307 0.635881544332885 0.6000826025684384 0.4690449932874916 0.6679288705246937 0.5497023893961635 1:1 3:2 5:1 6:1 7:1 8:2 9:1 10:2 11:1 12:3 13:2 15:1 16:2 18:8 19:5 20:1 
-0.3710559782120029 0.5621405638102718 0.4672102724729561 0.2861971859736907 0.4470604125001318 0.3493084155271952 0.1983472687747073 0.4791200095877797 0.5147850581605536 2:2 3:3 5:1 6:1 7:1 8:1 9:1 10:1 12:4 13:4 15:3 16:2 17:2 18:5 19:5 20:1 21:1 
-0 0 0.05333264085766145 0.030864913612329 0.02564537100576689 0 0.05988876705230009 0.01300361166079904 0 1:1 2:1 3:3 4:1 5:1 6:1 7:2 8:1 9:1 10:1 12:3 13:2 15:2 16:2 17:1 18:6 19:6 20:1 
-0.64649579639487 -0.2737943000946066 0.6175158189855368 0.4295572467600918 0.3733853409737658 0.5906839838561103 0.3178547230201654 0.6220783447347028 0.7491162356250608 1:1 2:3 3:2 4:1 5:1 6:1 7:1 8:1 9:1 10:1 12:2 13:4 14:1 15:3 16:1 17:4 18:2 19:1 20:4 21:3 
-0 -0 0.2057119344895732 0 0.09034295277480897 0 0 0 0 1:2 2:3 3:1 4:1 6:2 7:1 8:1 9:1 10:1 12:4 13:4 14:1 15:3 16:2 17:2 18:4 19:3 20:4 21:2 
-0.25744230051426 -0.3430108202791959 0.3094523373212066 0.606273632456789 0.3617341429718243 0.3377578060977269 0.03021191297666195 0.4362362008808376 0.6706655803158063 1:1 2:2 3:2 4:2 6:2 7:1 8:1 9:1 10:2 12:2 13:5 14:3 15:2 16:2 17:2 18:3 19:3 20:4 21:2 
-0.6393079706344096 -0.5369087191042036 0.4843625579510129 0.6208331450231922 0.6794481634156022 0.4995572870536615 0.5936417325767502 0.6952667930014418 0.5590059741004549 1:2 2:2 4:1 6:1 8:1 9:2 10:1 12:1 13:4 14:1 15:3 16:3 17:3 18:1 19:2 20:1 21:1 
-0.09483961685096796 -0.162531775765531 0 0 0.09032739787831191 0.227154417739119 0 0 0 1:2 2:3 3:1 4:1 5:1 6:1 7:1 8:1 9:1 10:1 11:1 12:3 13:5 14:3 15:3 16:1 17:3 18:4 19:3 20:3 21:2 
-0.1479908960977314 -0.1552035167503051 0.63073334830437 0.3258854996108638 0.3309781461107218 0.2248905360279069 0.8088640516386756 0.292096789355183 0.1864641967043572 1:2 2:3 3:1 4:1 6:1 7:1 9:1 10:2 11:1 12:2 13:3 14:2 15:1 16:3 17:3 18:3 19:1 20:3 21:2 
-0.2611643026815385 -0.5935792134042361 1 0.2679381596468897 0.992774155166082 0.3864860355881167 0.2062021396122218 0.7342032275048303 0.8494857358234238 1:2 2:3 3:1 4:1 6:2 7:1 8:1 9:1 10:1 12:4 13:4 14:1 15:3 16:2 17:2 18:4 19:3 20:4 21:2 
-0.3636052406877419 -0.4022527615756137 0 0.1232781506456822 0 0.1734043087094547 0.2401476211709522 0.004721365861616382 0.09023702542192624 1:1 2:3 4:2 6:1 7:1 8:1 9:1 10:1 12:2 13:4 14:2 15:2 16:1 17:4 18:3 19:2 20:1 21:2 
-0.3424351602028627 -0.2987256918940571 0.9466940443582428 0.3228824160620372 0.7872802417315603 0.2423078489531641 0.7544820987061223 0.475195392142713 0.3980562406040998 1:3 2:2 5:2 6:1 7:1 8:1 9:1 10:1 12:3 13:4 14:2 15:2 16:2 17:2 18:3 19:3 20:3 21:2 
-0.001531396531017946 -0 0 0 0 0 0 0 0 1:2 2:4 4:2 6:1 7:1 8:1 9:2 10:1 12:4 13:4 14:3 15:3 16:2 17:4 18:3 19:2 20:3 21:2 
-0.4604503886205678 -0 0.3590324270731351 0.06881326273909343 0.1450415553394217 0.3025896502265769 0 0 0.1628931479436427 1:2 2:2 3:1 4:2 6:1 7:1 9:1 10:2 11:1 12:2 13:3 14:2 15:3 16:2 17:2 18:2 19:2 20:3 21:2 
-0.3283431372654041 -0 0.5503584576866877 0.2602656459689598 0.4545337326327456 0.3210529347821012 0 0.4259731078514484 0.1286341164711346 1:2 2:4 4:2 6:1 7:1 8:1 9:2 10:1 12:4 13:4 14:3 15:3 16:2 17:4 18:3 19:2 20:3 21:2 
-0.1877942084774951 -0.0427267793402218 -0.4251814666622814 0.2665788153789092 0.5011493006617525 0.3657809036205571 0.4321724115007005 0.4531919376803633 0.7104126752699884 1:2 2:3 3:1 5:1 6:2 7:3 8:1 9:1 10:1 11:1 12:3 13:1 14:1 15:2 16:3 17:3 18:2 19:2 20:5 21:2 
-0.6062235384936074 -0.6570579285974414 -0.96114093178935 0.7870611730993842 0.7171059286897658 0.5485720723705824 0.7388336747216923 0.9618030143328863 0.7323184845235301 1:3 2:1 3:1 6:1 7:3 8:2 9:1 10:1 12:4 13:2 14:1 15:1 16:3 17:3 18:2 19:4 20:4 21:1 
-0.004445176733720296 -0 -0 0 0 0.08812363895516248 0 0 0.2731822018864398 1:1 2:3 3:2 6:3 7:2 8:2 9:2 11:3 12:2 13:1 14:2 15:1 16:2 17:3 18:3 19:3 20:4 21:3 
-1 -0.672207103924758 -0.8229447534507178 0.8490543900861701 0.8939153605302092 0.9991507011595656 0.7071329636078165 0.9699368573582148 0.9972768041131978 1:1 2:3 3:2 6:3 7:2 8:2 9:2 11:3 12:2 13:1 14:2 15:1 16:2 17:3 18:3 19:3 20:4 21:3 
-0 -0 -0.4157628979489745 0 0.5963795549963697 0.138621730492541 0 0.3555646273703523 0 1:3 2:3 3:1 4:1 5:1 6:2 7:2 8:1 9:1 10:2 11:1 12:3 13:3 14:1 15:4 16:3 17:3 18:2 19:4 20:4 21:3 
-0.3599333447350471 -0.3131668004735929 -0.5419972192809206 0.5536386582798886 0.5193520299160431 0.4732380324058449 0.07186879734701862 0.3054624799476366 1 1:1 2:4 3:1 4:1 5:1 6:2 7:2 8:2 9:1 10:2 11:1 12:3 13:3 14:2 15:3 16:2 17:3 18:2 19:5 20:4 21:3 
-0.5602946960802224 -0.5609747534447606 -1 0.4834213422915707 1 0.3770159264335761 0.5724390924411403 0.4930108014234746 0.4069349805357179 1:2 2:5 3:1 4:1 5:1 6:1 7:3 9:1 10:1 12:3 13:3 14:2 15:2 16:3 17:3 18:3 19:4 20:3 21:2 
-0.6214111751737605 -0.291648410373539 -0.9368336570375206 0.3141672558651989 1 1 0.2899515877173501 0.9963191811651286 0.9311451352407789 1:3 2:3 3:1 4:1 5:1 6:2 7:2 8:1 9:1 10:2 11:1 12:3 13:3 14:1 15:4 16:3 17:3 18:2 19:4 20:4 21:3 
-0.4466452383525236 -0.3571307328621278 -0.4544097563762388 -0.5414124565412365 0.4578164608023269 0.4197356029282686 0.3575021436917513 0.4645932105553226 0.4550916734019901 1:1 2:2 3:1 4:2 5:1 6:2 7:2 9:2 10:2 11:2 13:2 14:2 16:2 17:2 18:1 19:5 20:7 
-0.352198802652084 -0.2840648795436621 -0.2352667768132509 -0.2554156739034193 0.331714784992378 0.3026694060810594 0.2608512723961448 0.3624755730143394 0.3260586386462459 1:1 2:2 3:1 4:2 5:3 6:1 7:1 8:1 9:3 10:3 11:2 13:1 14:1 15:1 16:2 17:1 18:2 19:7 20:6 21:1 
-0.1086629019549157 -0.05553371732377119 -0.2267991336879896 -0.2098952608447127 0.1460260362365548 0.1328115107711015 0.07521840708085065 0.1808622478917711 0.1033032967407375 1:1 2:2 3:1 4:3 5:2 6:1 7:2 8:1 9:3 10:4 11:1 13:2 14:2 15:1 16:3 17:3 18:2 19:5 20:6 21:1 
-0.2551349705234697 -0.2889820543189419 -0.2289065395781888 -0.2336815969805471 0.2813975100475701 0.2504615687692984 0.1519336765621246 0.292491572899038 0.2508382699310767 2:2 3:2 4:2 6:2 7:1 8:1 9:4 10:4 11:1 13:1 14:1 15:2 16:3 17:1 18:3 19:5 20:5 
-0.6046617239459631 -0.4692319461376228 -0.5023872903369558 -0.5274783859687164 0.5966966883820926 0.5666288866424972 0.392956688907425 0.6088920024469523 0.5658099596960664 1:1 2:1 3:2 4:2 5:1 6:3 7:2 8:1 9:1 10:5 11:1 12:1 13:2 14:1 15:2 16:2 17:3 19:8 20:6 21:1 
-0.5967464563977336 -0.5636094548390312 -0.5566956485053329 -0.6999565898962484 0.6016142021008228 0.5607468670848775 0.4775137987275097 0.7574668474590256 0.6624389094787675 2:1 3:1 4:3 5:2 6:2 7:2 8:2 9:1 10:3 12:2 13:1 16:3 17:3 18:2 19:7 20:4 21:1 
-0.8342248008927808 -0.6251804156329665 -0.8212620136156423 -0.7860816708662411 0.8100280306454734 0.740525773874927 0.6418001068922529 0.7811074727444268 0.8383942731554617 2:2 3:2 4:2 6:2 7:1 8:1 9:3 10:3 14:1 15:2 16:1 17:1 18:3 19:2 20:5 21:1 
-0.0008599599051896231 -0 -0 -0 -0 0 0 0 0 1:3 2:2 3:1 5:1 6:2 7:2 8:2 9:1 10:1 12:3 13:2 14:2 15:4 16:2 17:1 18:4 19:2 20:5 
-0 -0 -0 -0 -0 0 0 0.02170542579190099 0 1:4 2:4 4:1 5:2 6:3 7:3 8:1 9:1 10:1 11:1 12:3 13:2 14:2 15:3 16:5 17:2 18:4 19:2 20:4 21:4 
-0.4670172044465343 -0.2325855652965405 -0.1074674713263878 -0.1057958089144869 -0.3287638731634088 0.6615156023175361 0.2280634387980905 0.29111682398434 0.3793472966942408 1:5 2:3 3:2 5:1 6:3 7:3 8:1 10:1 11:1 12:3 13:1 14:4 15:4 16:3 17:1 18:4 19:3 20:2 21:3 
-0.2853933643306956 -0.2949368701438455 -0.5007329240132303 -0.6698358144377293 -0.2964857698599724 0.4771138692519729 0.1941676376214571 0.5662323075477448 0.4495946243449369 1:2 2:4 3:1 4:1 5:1 6:3 7:3 8:1 10:1 12:3 13:3 14:2 15:5 16:5 17:2 18:3 19:3 20:2 21:1 
-0.6379856110057685 -0.3712276591004985 -0.5173546914349559 -0.9521345218466156 -0.5123089221231211 0.8684281629130761 0.443190552851926 1 0.8931221357053176 1:4 2:4 4:1 5:2 6:3 7:3 8:1 9:1 10:1 11:1 12:3 13:2 14:2 15:3 16:5 17:2 18:4 19:2 20:4 21:4 
-0.8594818787919283 -0.4402668584296249 -0.6524881757939693 -1 -0.5649734037771137 1 0.3492187420644583 0.8228352581214963 1 1:2 2:4 3:2 4:1 5:1 6:2 7:3 8:2 9:1 10:2 11:1 12:2 13:3 14:3 15:5 16:3 17:3 18:2 19:5 20:2 21:3 
-0.9781019205692361 -0.3252257893001781 -0.4007688002938599 -0.2523673130150697 -0.4103277046057099 1 0.2258570568525361 0.4586278651608052 0.6089183254667111 1:3 2:4 3:1 4:1 5:1 6:4 7:2 8:2 10:1 11:1 12:3 13:3 14:3 15:6 16:2 17:3 18:4 19:3 20:1 21:4 
-0.0595006340403201 -0.1955166604470921 -0.6437474260745105 -0.8034602690245599 -0.1875517977190545 0.01267269601547389 0.189579663818096 0.3351411897516471 0.287720273189737 1:4 2:5 3:1 5:1 6:3 7:1 8:2 9:1 10:1 11:1 12:3 13:3 14:3 15:3 16:4 17:2 18:4 19:4 20:3 21:3 
-0 -0 -0.3933079645796063 -0.2341324368857531 -0 0 0 0.1580210084388951 0.1707543877684226 1:3 2:2 3:1 5:1 6:2 7:2 8:2 9:1 10:1 12:3 13:2 14:2 15:4 16:2 17:1 18:4 19:2 20:5 
-0.1967670148850908 -0.1541394020774413 -0.09271222857693581 -0.2149458363852369 -0.07569452029641018 0.04671660693125336 0.1875345293334069 0.06920343163451424 0.1676106634745015 1:4 2:4 3:1 4:1 5:1 6:3 7:2 8:1 10:1 11:1 12:3 13:1 14:3 15:5 16:2 17:2 18:4 19:4 20:1 21:2 
-0.8186779732981185 -0.6881045686869183 -0.9972661469013886 -0.9952301742846889 -0.8491877216624277 0.9787351431464949 0.684780348820705 0.9927902202694215 0.9739710687319665 1:3 2:2 3:1 5:1 6:2 7:2 8:2 9:1 10:1 12:3 13:2 14:2 15:4 16:2 17:1 18:4 19:2 20:5 
-0.6500590779577169 -0.3616760849036187 -0.3147016542606246 -0.1988449456471555 -0.369025665553786 -0.5256164655930573 0.2680531243383941 0.4085143150057205 0.336981899490558 1:1 2:2 3:1 4:1 6:4 7:4 8:1 9:1 10:1 11:3 12:4 13:2 14:3 15:5 16:2 17:3 18:5 19:2 20:2 21:3 
-0.7602594617742473 -0.4048891537424567 -0.496609963104409 -0.8433465843530332 -0.4845005107447484 -0.7150379090625908 0.379622810609279 0.6297227544949239 1 1:2 2:3 3:1 4:2 6:3 7:3 8:3 9:1 10:1 11:3 12:4 13:2 14:3 15:4 16:3 17:3 18:3 19:3 20:4 21:5 
-0.1356033041439698 -0 -0.001796704428093556 -0 -0 -0 0 0 0 1:2 2:2 3:1 4:1 5:1 6:2 7:4 8:2 10:1 11:2 12:1 13:3 14:3 15:4 16:1 17:4 18:3 19:1 20:3 21:3 
-0.4513905115816457 -0.172901694029342 -0.3443636379124614 -0.7041698470100598 -0.2718792250480379 -0.9142447551579749 0.1446490508518133 0.8394903841787157 0.7427044429387495 1:2 2:3 3:2 4:2 6:3 7:3 8:2 9:1 10:2 11:3 12:3 13:2 14:3 15:5 16:4 17:3 18:3 19:3 20:4 21:3 
-1 -0.6690136259833051 -0.7277720916851553 -0.8046458225778568 -0.8185422945770357 -0.9247069883565041 0.5974484436988404 1 1 1:1 3:1 4:1 6:3 7:4 8:2 10:2 11:1 12:3 13:1 15:6 16:2 17:1 18:2 19:2 20:3 21:3 
-0 -0.006032219989047667 -0 -0 -0 -0 0 0 0 1:3 2:2 3:2 4:1 6:4 7:4 8:1 9:1 10:3 11:1 12:3 13:2 14:3 15:5 16:2 17:4 18:4 19:3 20:3 21:3 
-0.9848000220830556 -0.5129951762212259 -1 -0.8552013979536129 -0.6230014313626309 -0.937492042677418 0.5510959869337871 0.7601061650425042 0.8899902769890139 1:2 2:2 3:1 4:1 5:1 6:2 7:4 8:2 10:1 11:2 12:1 13:3 14:3 15:4 16:1 17:4 18:3 19:1 20:3 21:3 
-0 -0 -0 -0 -0 -0.0280839197282621 0 0 0 1:3 2:2 3:2 4:1 6:4 7:4 8:1 9:1 10:3 11:1 12:3 13:2 14:3 15:5 16:2 17:4 18:4 19:3 20:3 21:3 
-0.3358279089757441 -0.3307197719635985 -0.4206407576431942 -0.5842944078961113 -0.4066304888657908 -1 0.2788708888659821 0.4703199674902167 0.4688963898830433 1:3 2:2 3:2 4:1 6:4 7:4 8:1 9:1 10:3 11:1 12:3 13:2 14:3 15:5 16:2 17:4 18:4 19:3 20:3 21:3 
-0.3357355862256407 -0.3500990925237821 -0.2279756166764005 -0.1857413810084193 -0.1946796039356081 -0.1707291211123383 -0.214548078364432 0.1898368067774008 0.1661131377920886 1:3 2:2 3:1 6:1 7:1 8:1 9:1 11:1 12:1 13:1 16:1 17:2 18:3 19:3 20:1 21:3 
-0.4895055580212953 -0.4572603348860023 -0.9097316752439332 -0.8089121349010906 -0.5284668213435415 -0.709528861189913 -0.530375055341172 0.5257831413503334 0.5209250446141539 1:3 2:3 5:1 6:1 7:1 8:1 11:1 12:1 13:1 15:1 16:1 17:2 18:3 19:2 20:3 21:1 
-0.7406599393346781 -0.4740143167361327 -0.8149728614798208 -0.8308858725767497 -0.6229651388688726 -0.661764700754569 -0.6075366746032451 0.6688075372446599 0.7639847863256142 1:3 2:2 3:1 6:1 7:1 8:1 12:2 13:1 16:2 17:2 18:1 19:3 20:1 21:3 
-0.001101772731512506 -0 -0 -0 -0 -0 -0 0 0 1:4 2:3 5:2 7:1 9:1 10:1 11:1 12:1 13:1 16:3 17:3 18:3 19:2 20:2 21:2 
-0.3350056177852075 -0.2598844547251951 -0.7958137147048832 -0.4226312974084956 -0.3375771888731457 -0.3534356322447123 -0.3316387411104176 0.3715564841755386 0.2664128388893195 1:4 2:3 5:2 7:1 9:1 10:1 11:1 12:1 13:1 16:3 17:3 18:3 19:2 20:2 21:2 
-0.3416872430272512 -0.3046196870042817 -0.1095230606751545 -0.3485005868229217 -0.358054874703319 -0.398464193902506 -0.3218915839630567 0.4291615098743806 0.3099910341105319 1:4 2:2 5:2 7:1 9:1 10:1 11:1 12:2 16:3 17:2 18:3 19:2 20:2 21:2 
-0.2764566633080262 -0.2526374488086325 -0.09338735092135735 -0.2157272546180413 -0.3160324665335723 -0.2084694609566374 -0.2137501719157728 0.2403667985411508 0.5216895808043365 1:3 2:3 3:1 4:1 5:1 7:1 8:1 10:1 11:1 12:1 15:1 16:1 17:2 18:3 19:3 20:2 21:2 
-0 -0 -0 -0 -0 -0 -0 -0 0.4145879171154114 1:2 2:2 3:3 4:2 5:1 6:2 8:3 9:2 10:1 11:1 12:4 13:3 14:1 15:4 16:4 17:3 18:3 19:3 20:5 21:3 
-0.5349264046712767 -0.4672182447145978 -0.4227396755176 -0.4660530450497553 -0.4786802819915577 -0.666187677870254 -0.5585620081144123 -0.3537923357091672 0.7642472975117355 1:1 2:3 3:2 4:1 5:3 6:1 7:3 8:3 10:1 11:3 12:4 13:2 14:1 15:3 16:6 17:2 18:5 19:4 20:4 21:2 
-0.3686422924269117 -0 -0 -0 -0 -0.1613521301269336 -0.201542741857641 -0 0 1:2 2:2 3:1 4:1 5:2 7:3 8:1 9:2 10:2 11:1 12:4 13:1 14:1 15:6 16:3 17:4 18:3 19:1 20:2 21:2 
-0.6519282806966147 -0.4376725236750438 -0.9617130062761242 -0.926525718538652 -0.5193494241740508 -0.7681338266636963 -0.7805730375115866 -0.3489416921727166 0.9725309717425712 1:2 2:2 3:3 4:2 5:1 6:2 8:3 9:2 10:1 11:1 12:4 13:3 14:1 15:4 16:4 17:3 18:3 19:3 20:5 21:3 
-0.9261051781264975 -0.6860430985579048 -0.9500229162611577 -0.9924855539104065 -0.81882384145122 -1 -0.9827751339383329 -0.641918955972577 0.940251931346531 1:2 2:2 3:1 4:1 5:2 7:3 8:1 9:2 10:2 11:1 12:4 13:1 14:1 15:6 16:3 17:4 18:3 19:1 20:2 21:2 
-0.373602429843813 -0.2885906518298726 -0.4778853367543912 -0.8598008155801378 -0.4266179152587669 -0.6099557876415471 -0.4117232920578528 -0.3147514159201823 0.5039409388096825 1:3 2:1 3:2 4:1 5:3 6:3 7:2 8:1 9:2 10:1 11:1 12:4 13:3 14:1 15:2 16:5 17:4 18:3 19:4 20:5 21:3 
-0.545478294724245 -0.4095916406441792 -0.390597693927061 -0.5970100765364773 -0.5481012716410642 -0.9055455183067447 -0.6885455899498514 -0.3564758635823713 0.5795688961844634 1:3 2:4 3:2 4:1 5:3 6:2 7:3 8:3 9:2 10:1 11:2 12:3 13:2 14:1 15:6 16:5 17:3 18:4 19:4 20:6 21:2 
-0.4912667870958615 -0.4833039038083504 -0.4828125925964392 -0.6934136896626275 -0.6563161924942164 -0.6044985900915896 -0.484431782782404 -0.4096320146064496 1 1:2 2:1 3:2 4:1 5:3 6:3 7:2 8:3 10:1 11:1 12:4 13:2 14:1 15:1 16:4 17:2 18:4 19:5 20:5 21:3 
-0.03153388817169624 -0.3488999414503701 -0.2375744210011888 -0.2299023915153263 -0.389227502756677 -0.0173664309756905 -0 -0.2080298716320046 -1 1:1 2:2 3:3 4:1 5:1 6:2 7:1 8:4 10:1 12:4 13:1 14:1 15:2 16:3 17:1 18:3 19:4 20:4 21:3 
-0.8266143073373433 -0.579212754331352 -0.9436265274510195 -1 -0.6968064816848286 -0.9287619870615962 -0.428649840518374 -0.6024293290894704 -0.6128973632120023 1:1 2:4 3:2 4:1 5:1 6:1 7:1 8:2 10:1 12:4 13:1 14:1 15:4 16:1 17:1 18:2 19:4 20:4 21:2 
-0 -0 -0.07341115983010062 -0.2397901771639766 -0 -0 -0 -0 -0 2:2 3:4 5:1 6:3 7:2 8:2 10:1 11:1 12:2 13:3 14:3 15:3 16:2 17:2 18:2 19:3 20:4 21:2 
-0 -0.001120861452834473 -0 -0 -0 -0 -0 -0 -0 1:2 2:2 3:2 4:1 5:2 6:4 7:3 8:2 10:1 11:1 12:4 13:2 14:1 15:3 16:4 17:2 18:3 19:2 20:6 21:5 
-0.8717628178543999 -0.5785862354404211 -0.9955527720019982 -0.9477717680105671 -0.7515299031047602 -0.9263485544126622 -0.8824661110151995 -0.4427053733313262 -0.7451098349024595 2:2 3:4 5:1 6:3 7:2 8:2 10:1 11:1 12:2 13:3 14:3 15:3 16:2 17:2 18:2 19:3 20:4 21:2 
-0 -0 -0.0005602461630910038 -0.09175831499664211 -0 -0.2167122464639775 -0.1804365164359851 -0 -0.5357577265423942 1:2 2:2 3:2 4:1 5:2 6:4 7:3 8:2 10:1 11:1 12:4 13:2 14:1 15:3 16:4 17:2 18:3 19:2 20:6 21:5 
-0.8173814605857748 -0.5528906450100189 -0.7523780583801667 -0.9991507518917833 -0.7554347135768176 -0.9447704887554616 -0.996220323585548 -0.5013510061810718 -0.9963882107220436 1:2 2:2 3:2 4:1 5:2 6:4 7:3 8:2 10:1 11:1 12:4 13:2 14:1 15:3 16:4 17:2 18:3 19:2 20:6 21:5 
-0 -0 -0 -0.4927217238174675 -0 -0.1934015283402828 -0.4278115556211297 -0 -0.09329560404835834 1:1 2:3 3:2 4:1 5:1 6:2 7:3 8:4 10:1 12:4 13:1 14:1 15:4 16:2 17:2 18:3 19:4 20:4 21:3 
-0.6961347776903366 -0.4191309675260503 -0.5050337877264637 -1 -0.5171045289452314 -1 -0.8057350665843989 -0.7946008423021717 -0.6093299521031499 1:2 2:3 3:2 4:1 5:1 6:2 7:2 8:3 10:1 11:2 12:2 13:1 14:1 15:3 16:3 17:2 18:3 19:4 20:2 21:4 
-1 -0.2216899497950447 -0.2864212804558778 -0.05017515417389027 -0.09183189098203108 -0.7036775393661633 -0.7172535955407298 -0 -0.5823492611799871 1:1 2:3 3:3 4:1 5:1 6:2 7:2 8:3 10:1 11:1 12:3 13:2 14:1 15:5 16:3 17:2 18:3 19:3 20:2 21:4 
